<?xml version="1.0"?>
<opencv_storage>
<stage19>
  <maxWeakCount>5</maxWeakCount>
  <stageThreshold>-4.8420906066894531e-01</stageThreshold>
  <weakClassifiers>
    <_>
      <internalNodes>
        0 -1 25790 -5.5860006250441074e-04</internalNodes>
      <leafValues>
        3.1250000000000000e-01 -6.0000002384185791e-01</leafValues></_>
    <_>
      <internalNodes>
        0 -1 95367 -3.1349789351224899e-02</internalNodes>
      <leafValues>
        8.1769186258316040e-01 -2.7013483643531799e-01</leafValues></_>
    <_>
      <internalNodes>
        0 -1 26287 -6.6103151766583323e-04</internalNodes>
      <leafValues>
        5.0255286693572998e-01 -3.5050919651985168e-01</leafValues></_>
    <_>
      <internalNodes>
        0 -1 114198 -3.9007083978503942e-04</internalNodes>
      <leafValues>
        -7.1912807226181030e-01 2.8637707233428955e-01</leafValues></_>
    <_>
      <internalNodes>
        0 -1 119629 -2.0906198769807816e-03</internalNodes>
      <leafValues>
        6.9948363304138184e-01 -3.0999901890754700e-01</leafValues></_></weakClassifiers></stage19>
</opencv_storage>
