<?xml version="1.0"?>
<opencv_storage>
<stage15>
  <maxWeakCount>6</maxWeakCount>
  <stageThreshold>-3.2672396302223206e-01</stageThreshold>
  <weakClassifiers>
    <_>
      <internalNodes>
        0 -1 135532 1.7052568495273590e-02</internalNodes>
      <leafValues>
        -4.3243244290351868e-01 6.9230771064758301e-01</leafValues></_>
    <_>
      <internalNodes>
        0 -1 158396 5.2526581566780806e-04</internalNodes>
      <leafValues>
        1.6829696297645569e-01 -1.</leafValues></_>
    <_>
      <internalNodes>
        0 -1 66272 3.4031584858894348e-02</internalNodes>
      <leafValues>
        -2.3084078729152679e-01 7.7861702442169189e-01</leafValues></_>
    <_>
      <internalNodes>
        0 -1 104016 1.6858805611263961e-04</internalNodes>
      <leafValues>
        2.4680604040622711e-01 -7.9410701990127563e-01</leafValues></_>
    <_>
      <internalNodes>
        0 -1 125938 -4.8466805310454220e-05</internalNodes>
      <leafValues>
        -6.1821168661117554e-01 2.9811704158782959e-01</leafValues></_>
    <_>
      <internalNodes>
        0 -1 149684 -1.3399228919297457e-03</internalNodes>
      <leafValues>
        6.4990389347076416e-01 -3.4521552920341492e-01</leafValues></_></weakClassifiers></stage15>
</opencv_storage>
