<?xml version="1.0"?>
<opencv_storage>
<stage12>
  <maxWeakCount>5</maxWeakCount>
  <stageThreshold>-5.8619129657745361e-01</stageThreshold>
  <weakClassifiers>
    <_>
      <internalNodes>
        0 -1 45673 2.9055163264274597e-02</internalNodes>
      <leafValues>
        -5.1562500000000000e-01 4.3478259444236755e-01</leafValues></_>
    <_>
      <internalNodes>
        0 -1 72447 -5.6921076029539108e-03</internalNodes>
      <leafValues>
        5.4387855529785156e-01 -3.2614812254905701e-01</leafValues></_>
    <_>
      <internalNodes>
        0 -1 131806 -1.9817528664134443e-04</internalNodes>
      <leafValues>
        -8.2177746295928955e-01 2.3946566879749298e-01</leafValues></_>
    <_>
      <internalNodes>
        0 -1 109883 -3.0682713259011507e-04</internalNodes>
      <leafValues>
        6.4807176589965820e-01 -3.1125468015670776e-01</leafValues></_>
    <_>
      <internalNodes>
        0 -1 101936 4.1616358794271946e-04</internalNodes>
      <leafValues>
        -4.4073921442031860e-01 5.6819117069244385e-01</leafValues></_></weakClassifiers></stage12>
</opencv_storage>
