<?xml version="1.0"?>
<opencv_storage>
<stage8>
  <maxWeakCount>6</maxWeakCount>
  <stageThreshold>-9.6685111522674561e-01</stageThreshold>
  <weakClassifiers>
    <_>
      <internalNodes>
        0 -1 152891 6.7914985120296478e-03</internalNodes>
      <leafValues>
        -6.4814811944961548e-01 3.6363637447357178e-01</leafValues></_>
    <_>
      <internalNodes>
        0 -1 98581 -1.4186565531417727e-03</internalNodes>
      <leafValues>
        3.5566008090972900e-01 -6.7446309328079224e-01</leafValues></_>
    <_>
      <internalNodes>
        0 -1 80747 -1.5568500384688377e-04</internalNodes>
      <leafValues>
        4.7847324609756470e-01 -5.1087927818298340e-01</leafValues></_>
    <_>
      <internalNodes>
        0 -1 35821 -2.8319410979747772e-02</internalNodes>
      <leafValues>
        6.1764740943908691e-01 -3.8107454776763916e-01</leafValues></_>
    <_>
      <internalNodes>
        0 -1 43890 4.4294700026512146e-02</internalNodes>
      <leafValues>
        -2.7114003896713257e-01 8.3135414123535156e-01</leafValues></_>
    <_>
      <internalNodes>
        0 -1 109813 2.6668179780244827e-02</internalNodes>
      <leafValues>
        -4.8228308558464050e-01 7.3889034986495972e-01</leafValues></_></weakClassifiers></stage8>
</opencv_storage>
